// Datos exportados del modelo LNN

const float tau[] PROGMEM = {2.0289376, 2.5288472, 2.474309, 2.2076457, 2.2662408, 2.0846107, 1.4709874, 0.53684074, 1.3440046, 2.0340257, 2.0358768, 1.7886764, 2.5955381, 2.0327034, 1.2626164, 2.1355472, 1.7931726, 1.9996634, 0.7305368, 1.9290367};
const float W_weight[] PROGMEM = {-1.2215663, -0.47397575, -0.21102211, 0.11028979, -0.19598803, -0.21043785, 0.52331084, 0.055876978, -0.1561214, 0.45895463, 0.07785178, 0.58129245, 0.5369914, -0.13435833, 0.19751158, 0.1344817, 0.4041638, 0.5797601, -0.4399248, -0.03289861, -0.008061587, -1.0515418, 0.16805792, 0.1310466, 0.08593782, 0.2100973, 0.12109853, -0.046697326, -0.12046208, 0.61104417, -0.15022352, -0.15861921, 0.31811985, 0.16840564, -0.09913755, -0.13505016, 0.4191897, 0.31438258, 0.059846614, 0.5022696, -0.108384155, 0.17777805, -0.8637398, 0.49557817, 0.3750842, -0.1641357, 0.3079252, -0.20800233, -0.40915382, -0.2453649, -0.16700807, 0.43642086, -0.32493058, 0.09251702, 0.08730798, 0.08398219, -0.016762713, 0.35777226, -0.3998902, -0.0745386, -0.19168237, 0.49982914, 0.2599817, -0.9452953, -0.2288077, 0.15439337, -0.36203054, -0.07852975, 0.3180384, 0.15049942, 0.2111057, -0.11901897, 0.16613546, 0.28826433, -0.10458147, 0.3719711, -0.41543335, -0.6538434, 0.08406274, -0.04393267, 0.036335565, 0.35096386, 0.47203594, 0.084422715, -0.34557378, 0.5519979, -0.4717585, 0.758293, 0.6794911, 0.28368938, 0.147581, -0.17364596, 0.0038595956, 0.21661316, -0.04640626, 0.06869382, -0.048550583, -0.19794871, 0.6020611, 0.21012335, 0.055158395, -0.63159215, -0.21892637, 0.45333925, 0.53631294, -0.4888, 0.4551781, -0.83227915, -0.57639277, 0.22926655, -0.21234189, 0.2986288, -0.12114589, -0.18178046, 0.36348188, 0.3016078, 0.6387493, 0.0789163, -0.3965712, 0.09447105, 0.06950542, 0.42391676, 0.6687028, -0.5289972, -0.1401701, 0.4195621, -0.9477098, 0.43698105, 0.47736588, 0.21688396, 0.21012643, -0.36327702, -0.07871759, -0.0414019, -0.62912244, -0.13298854, -0.39306647, -0.32720682, 0.28843015, 0.35724714, -0.3355921, -0.34127352, -0.509132, 0.15760618, 0.37183303, -0.035419162, 0.1744205, -0.47931492, -0.0052634436, 0.013835766, -0.17942621, 0.2985515, 0.012902645, -0.2822051, 0.11182392, -0.09269358, 0.11844169, 0.19327405, -0.05911067, 0.30517355, -0.08353372, -0.66157466, -0.42015475, 0.28630346, 0.5779024, -0.3155879, 0.5936541, -0.9693259, -0.5486102, 0.15719417, -0.2654919, 0.5431148, -0.15603872, -0.0060426737, 0.2987478, 0.32497147, 0.22725719, 0.49531618, -0.5017331, 0.13626367, 0.476514, 0.15145846, -0.6526227, 0.55986565, 0.5666636, -0.41228324, 0.68418175, -0.20215906, -0.5457253, -0.9349493, -0.6692339, 0.33927646, -0.16997278, -0.502321, 0.7102595, -0.15012503, 0.19724138, 0.19072479, -0.38276842, -0.5782356, 0.150413, -0.24478999, -0.15615712, 0.5431093, 0.20949662, -0.20923384, 0.24343804, -0.5512106, -0.60612875, 0.1695732, -0.701552, 0.08533227, -0.21261309, -0.14709015, 0.29034123, -0.17908776, 0.46132725, 0.30810007, -0.5768611, -0.3018692, -0.09677507, 0.5746363, 0.3745641, 0.11525259, -0.3736388, 0.46875733, -0.42690524, 0.20081912, 0.6274315, -0.30996865, -0.21440774, -1.2006088, -0.015003691, -0.12449132, -0.12739567, -0.14158429, -0.39774877, -0.09812098, 0.11334828, -0.4438099, 0.22692665, 0.14070553, -0.45697647, 0.29582798, -0.2910554, 0.31529775, 0.42731255, -0.0657096, 0.07701076, 0.13835971, 0.15539376, 0.49724773, -0.90634906, -0.06700498, -0.20253147, -0.122950315, -0.036969267, -0.07556227, -0.096932635, 0.0017368463, -0.04984965, -0.5191036, -0.18691328, 0.30868033, 0.18754531, -0.6116997, 0.6424018, -0.17885552, -0.3248809, -0.2735904, -0.6453664, 0.45005682, 0.14641877, -1.0070577, 0.58094925, 0.027289677, 0.9791382, 0.56541896, -0.2743187, -0.24847002, 0.048531223, 0.47849026, 0.28076708, -0.0552002, -0.78954595, 0.55591756, -0.79752237, 0.9578016, 0.8144409, 0.24254267, 0.32499614, -0.64171404, -0.054992273, 0.2989261, -0.6527067, -0.20891263, -0.21575534, -0.07722217, 0.3978159, 0.2915691, -0.14766634, -0.32582042, -0.24782255, 0.8452565, 0.45052096, -0.43488497, 0.44198698, -0.0836449, -0.29688013, -0.38852233, -1.0091128, -0.06557418, 0.28611982, -0.5473159, 0.58777744, -1.0986413, 0.7316907, 0.49085313, -0.3026591, -0.78782034, 0.6559645, 1.0321406, 0.39501387, -0.35922053, -0.03171568, 0.013701386, -0.30798572, 0.08534516, 0.3836743, -0.22564821, 0.4715675, 0.051159564, -0.079270236, 0.71331376, 0.014004288, 0.3946608, -1.1116089, -0.6800307, 0.19360329, 0.20319095, 0.19723001, 0.22640893, 0.32596013, -0.22416806, -0.23179562, 0.17016397, -0.15873376, 0.008547182, 0.38216788, 0.050127823, 0.10355182, -0.04622124, -0.32052612, 0.06629751, -0.07244552, -0.12623358, -0.44791883, -1.2721212, 0.29276747, 0.57735705, -0.018173406, -0.5102811, -0.58244413, 0.1236407, 0.3917257, -0.41965804, 0.5774484, -0.7821337, -0.56519514, -0.0942851, 0.103704244, 0.3874616, -0.18164936, -0.06676469, 0.21131286, 0.20133033, 0.34677526, 0.49017483, -0.30703807, 0.27786404, 0.207451, 0.115570486, -0.6345764, 0.6112378, 0.5084037, -0.38014808, 0.40285957, -0.2153136, -0.22504543, -0.80965424, -0.8370737, 0.3220301, 0.110631526, -0.4108338, 0.79086673, -0.4293998, 0.12299311, 0.5751592, -0.4793066, -1.1482419};
const float W_bias[] PROGMEM = {0.10646036, -0.1880348, 0.060568683, 0.029365603, 0.0167768, -0.3206701, -0.13358104, 0.12361886, -0.30623055, -0.088404775, -0.53524053, 0.074787505, 0.029823486, -0.16366632, 0.5641617, -0.038694255, -0.06883973, 0.21223874, -0.30615988, -0.14231512};
const float U_weight[] PROGMEM = {0.16571109, -0.27947357, -0.15828858, 0.51814306, 0.048267037, -0.6590297, -0.006230059, 0.00060755253, -0.16974984, -0.16262136, 0.20490311, -0.5255512, -0.38814405, 0.87479573, 0.47249824, 0.012314136, 0.18022682, 0.29054788, 0.2507403, -0.9156271, 0.06713039, 0.012769384, -0.0107385935, 0.65108085, 0.043660715, 0.40634033, 0.08743839, 0.41479173, -0.2856111, 0.3028157, 0.11734602, 0.5106233, -0.07312298, 0.0613386, -0.022129677, -0.15424754, 0.33492544, 0.2979471, 0.27886912, -0.42788893};
const float U_bias[] PROGMEM = {-0.40658954, 0.43929625, -0.28577346, 0.042988118, -0.11013888, 0.45532933, 0.46484074, 0.23147821, 0.40287015, -0.25589254, 0.47955304, -0.20182669, -0.089272484, 0.055985, -0.37682855, -0.277778, 0.17026156, -0.078481466, 0.11837241, -0.30173454};
const float out_weight[] PROGMEM = {-0.00015397921, 0.0024220452, -0.084246926, -0.009368718, -0.082657516, 0.5467151, -0.08165238, 0.19697571, 0.19427717, 0.14299434, -0.046875294, 0.046611525, 0.01793144, -0.046479262, -0.15071179, -0.036588743, -0.05027472, 0.008024931, 0.24114834, 0.050434012};
const float out_bias[] PROGMEM = {-0.0362438};
